digraph Tree {
node [shape=box, style="filled, rounded", color="black", fontname="helvetica"] ;
edge [fontname="helvetica"] ;
0 [label="vitesse_max <= 823.87\ngini = 0.5\nsamples = 551\nvalue = [454.0, 419.0]\nclass = human", fillcolor="#fdf5f0"] ;
1 [label="acceleration_ecart_type <= 1481.48\ngini = 0.13\nsamples = 244\nvalue = [26, 358]\nclass = robot", fillcolor="#47a4e7"] ;
0 -> 1 [labeldistance=2.5, labelangle=45, headlabel="True"] ;
2 [label="acceleration_ecart_type <= 1137.18\ngini = 0.03\nsamples = 226\nvalue = [6.0, 349.0]\nclass = robot", fillcolor="#3c9fe5"] ;
1 -> 2 ;
3 [label="acceleration_max <= -113.13\ngini = 0.01\nsamples = 210\nvalue = [2, 336]\nclass = robot", fillcolor="#3a9ee5"] ;
2 -> 3 ;
4 [label="gini = 0.0\nsamples = 2\nvalue = [2, 0]\nclass = human", fillcolor="#e58139"] ;
3 -> 4 ;
5 [label="gini = 0.0\nsamples = 208\nvalue = [0, 336]\nclass = robot", fillcolor="#399de5"] ;
3 -> 5 ;
6 [label="acceleration_moyenne <= 120.07\ngini = 0.36\nsamples = 16\nvalue = [4, 13]\nclass = robot", fillcolor="#76bbed"] ;
2 -> 6 ;
7 [label="vitesse_min <= 4.1\ngini = 0.44\nsamples = 6\nvalue = [4, 2]\nclass = human", fillcolor="#f2c09c"] ;
6 -> 7 ;
8 [label="vitesse_range_ratio <= 1.0\ngini = 0.44\nsamples = 3\nvalue = [1, 2]\nclass = robot", fillcolor="#9ccef2"] ;
7 -> 8 ;
9 [label="gini = 0.0\nsamples = 2\nvalue = [0, 2]\nclass = robot", fillcolor="#399de5"] ;
8 -> 9 ;
10 [label="gini = 0.0\nsamples = 1\nvalue = [1, 0]\nclass = human", fillcolor="#e58139"] ;
8 -> 10 ;
11 [label="gini = 0.0\nsamples = 3\nvalue = [3, 0]\nclass = human", fillcolor="#e58139"] ;
7 -> 11 ;
12 [label="gini = 0.0\nsamples = 10\nvalue = [0, 11]\nclass = robot", fillcolor="#399de5"] ;
6 -> 12 ;
13 [label="variance_angles <= 0.05\ngini = 0.43\nsamples = 18\nvalue = [20, 9]\nclass = human", fillcolor="#f1ba92"] ;
1 -> 13 ;
14 [label="gini = 0.0\nsamples = 8\nvalue = [15, 0]\nclass = human", fillcolor="#e58139"] ;
13 -> 14 ;
15 [label="acceleration_min <= -2608.07\ngini = 0.46\nsamples = 10\nvalue = [5, 9]\nclass = robot", fillcolor="#a7d3f3"] ;
13 -> 15 ;
16 [label="gini = 0.0\nsamples = 4\nvalue = [5, 0]\nclass = human", fillcolor="#e58139"] ;
15 -> 16 ;
17 [label="gini = 0.0\nsamples = 6\nvalue = [0, 9]\nclass = robot", fillcolor="#399de5"] ;
15 -> 17 ;
18 [label="vitesse_range_ratio <= 0.94\ngini = 0.22\nsamples = 307\nvalue = [428, 61]\nclass = human", fillcolor="#e99355"] ;
0 -> 18 [labeldistance=2.5, labelangle=-45, headlabel="False"] ;
19 [label="ratio_linearite <= 0.34\ngini = 0.42\nsamples = 53\nvalue = [25.0, 58.0]\nclass = robot", fillcolor="#8ec7f0"] ;
18 -> 19 ;
20 [label="acceleration_max <= 12748.79\ngini = 0.03\nsamples = 35\nvalue = [1, 56]\nclass = robot", fillcolor="#3d9fe5"] ;
19 -> 20 ;
21 [label="gini = 0.0\nsamples = 34\nvalue = [0, 56]\nclass = robot", fillcolor="#399de5"] ;
20 -> 21 ;
22 [label="gini = 0.0\nsamples = 1\nvalue = [1, 0]\nclass = human", fillcolor="#e58139"] ;
20 -> 22 ;
23 [label="variance_angles <= 0.0\ngini = 0.14\nsamples = 18\nvalue = [24, 2]\nclass = human", fillcolor="#e78c49"] ;
19 -> 23 ;
24 [label="gini = 0.0\nsamples = 1\nvalue = [0, 1]\nclass = robot", fillcolor="#399de5"] ;
23 -> 24 ;
25 [label="entropie_angles <= 1.29\ngini = 0.08\nsamples = 17\nvalue = [24, 1]\nclass = human", fillcolor="#e68641"] ;
23 -> 25 ;
26 [label="acceleration_max <= 479.61\ngini = 0.5\nsamples = 2\nvalue = [1, 1]\nclass = human", fillcolor="#ffffff"] ;
25 -> 26 ;
27 [label="gini = 0.0\nsamples = 1\nvalue = [1, 0]\nclass = human", fillcolor="#e58139"] ;
26 -> 27 ;
28 [label="gini = 0.0\nsamples = 1\nvalue = [0, 1]\nclass = robot", fillcolor="#399de5"] ;
26 -> 28 ;
29 [label="gini = 0.0\nsamples = 15\nvalue = [23, 0]\nclass = human", fillcolor="#e58139"] ;
25 -> 29 ;
30 [label="vitesse_ecart_type <= 311.56\ngini = 0.01\nsamples = 254\nvalue = [403, 3]\nclass = human", fillcolor="#e5823a"] ;
18 -> 30 ;
31 [label="vitesse_ecart_type <= 294.67\ngini = 0.36\nsamples = 11\nvalue = [10, 3]\nclass = human", fillcolor="#eda774"] ;
30 -> 31 ;
32 [label="gini = 0.0\nsamples = 9\nvalue = [10, 0]\nclass = human", fillcolor="#e58139"] ;
31 -> 32 ;
33 [label="gini = 0.0\nsamples = 2\nvalue = [0, 3]\nclass = robot", fillcolor="#399de5"] ;
31 -> 33 ;
34 [label="gini = 0.0\nsamples = 243\nvalue = [393, 0]\nclass = human", fillcolor="#e58139"] ;
30 -> 34 ;
}